/*
 * Copyright (c) 2026 EdgeImpulse Inc.
 *
 * Generated by Edge Impulse and licensed under the applicable Edge Impulse
 * Terms of Service. Community and Professional Terms of Service
 * (https://edgeimpulse.com/legal/terms-of-service) or Enterprise Terms of
 * Service (https://edgeimpulse.com/legal/enterprise-terms-of-service),
 * according to your product plan subscription (the “License”).
 *
 * This software, documentation and other associated files (collectively referred
 * to as the “Software”) is a single SDK variation generated by the Edge Impulse
 * platform and requires an active paid Edge Impulse subscription to use this
 * Software for any purpose.
 *
 * You may NOT use this Software unless you have an active Edge Impulse subscription
 * that meets the eligibility requirements for the applicable License, subject to
 * your full and continued compliance with the terms and conditions of the License,
 * including without limitation any usage restrictions under the applicable License.
 *
 * If you do not have an active Edge Impulse product plan subscription, or if use
 * of this Software exceeds the usage limitations of your Edge Impulse product plan
 * subscription, you are not permitted to use this Software and must immediately
 * delete and erase all copies of this Software within your control or possession.
 * Edge Impulse reserves all rights and remedies available to enforce its rights.
 *
 * Unless required by applicable law or agreed to in writing, the Software is
 * distributed on an "AS IS" BASIS, WITHOUT WARRANTIES OR CONDITIONS OF ANY KIND,
 * either express or implied. See the License for the specific language governing
 * permissions, disclaimers and limitations under the License.
 */
// Generated on: 16.04.2026 23:28:54

#include <stdio.h>
#include <stdlib.h>
#include "edge-impulse-sdk/tensorflow/lite/c/builtin_op_data.h"
#include "edge-impulse-sdk/tensorflow/lite/c/common.h"
#include "edge-impulse-sdk/tensorflow/lite/micro/micro_mutable_op_resolver.h"
#include "edge-impulse-sdk/porting/ei_classifier_porting.h"

#if EI_CLASSIFIER_PRINT_STATE
#if defined(__cplusplus) && EI_C_LINKAGE == 1
extern "C" {
    extern void ei_printf(const char *format, ...);
}
#else
extern void ei_printf(const char *format, ...);
#endif
#endif

#define STRINGIZE(x) #x
#define STRINGIZE_VALUE_OF(x) STRINGIZE(x)

#if defined (__GNUC__)  /* GNU compiler */
#define ALIGN(X) __attribute__((aligned(X)))
#define DEFINE_SECTION(x) __attribute__((section(x)))
#elif defined (_MSC_VER)
#define ALIGN(X) __declspec(align(X))
#elif defined (__TASKING__) /* TASKING Compiler */
#define ALIGN(X) __align(X)
#define DEFINE_SECTION(x) __attribute__((section(x)))
#elif defined (__ARMCC_VERSION) /* Arm Compiler */
#define ALIGN(X) __ALIGNED(x)
#define DEFINE_SECTION(x) __attribute__((section(x)))
#elif defined (__ICCARM__) /* IAR Compiler */
#define ALIGN(x) __attribute__((aligned(x)))
#define DEFINE_SECTION(x) __attribute__((section(x)))
#elif defined (__clang__) /* LLVM/Clang Compiler */
#define ALIGN(X) __ALIGNED(x)
#define DEFINE_SECTION(x) __attribute__((section(x)))
#endif

#if defined(EI_MODEL_SECTION) && (defined(__GNUC__) || defined(__clang__))
#define MODEL_SECTION(X) __attribute__((section(STRINGIZE_VALUE_OF(X))))
#else
#define MODEL_SECTION(X)
#endif

#ifndef EI_MAX_SCRATCH_BUFFER_COUNT
#ifndef CONFIG_IDF_TARGET_ESP32S3
#define EI_MAX_SCRATCH_BUFFER_COUNT 4
#else
#define EI_MAX_SCRATCH_BUFFER_COUNT 4
#endif // CONFIG_IDF_TARGET_ESP32S3
#endif // EI_MAX_SCRATCH_BUFFER_COUNT

#ifndef EI_MAX_OVERFLOW_BUFFER_COUNT
#define EI_MAX_OVERFLOW_BUFFER_COUNT 10
#endif // EI_MAX_OVERFLOW_BUFFER_COUNT

using namespace tflite;
using namespace tflite::ops;
using namespace tflite::ops::micro;

namespace {

#if defined(EI_CLASSIFIER_ALLOCATION_STATIC_HIMAX) || defined(EI_CLASSIFIER_ALLOCATION_STATIC_HIMAX_GNU)
constexpr int kTensorArenaSize = 1552;
#else
constexpr int kTensorArenaSize = 528;
#endif

#if defined(EI_CLASSIFIER_ALLOCATION_STATIC)
#if defined (EI_TENSOR_ARENA_LOCATION)
uint8_t tensor_arena[kTensorArenaSize] ALIGN(16) DEFINE_SECTION(STRINGIZE_VALUE_OF(EI_TENSOR_ARENA_LOCATION));
#else
uint8_t tensor_arena[kTensorArenaSize] ALIGN(16);
#endif
#elif defined(EI_CLASSIFIER_ALLOCATION_STATIC_HIMAX)
#pragma Bss(".tensor_arena")
uint8_t tensor_arena[kTensorArenaSize] ALIGN(16);
#pragma Bss()
#elif defined(EI_CLASSIFIER_ALLOCATION_STATIC_HIMAX_GNU)
uint8_t tensor_arena[kTensorArenaSize] ALIGN(16) __attribute__((section(".tensor_arena")));
#else
#define EI_CLASSIFIER_ALLOCATION_HEAP 1
uint8_t* tensor_arena = NULL;
#endif

static uint8_t* tensor_boundary;
static uint8_t* current_location;

template <int SZ, class T> struct TfArray {
  int sz; T elem[SZ];
};

enum used_operators_e {
  OP_FULLY_CONNECTED, OP_SOFTMAX,  OP_LAST
};

struct TensorInfo_t { // subset of TfLiteTensor used for initialization from constant memory
  TfLiteAllocationType allocation_type;
  TfLiteType type;
  void* data;
  TfLiteIntArray* dims;
  size_t bytes;
  TfLiteQuantization quantization;
};

typedef struct {
  TfLiteTensor tensor;
  int16_t index;
} TfLiteTensorWithIndex;

typedef struct {
  TfLiteEvalTensor tensor;
  int16_t index;
} TfLiteEvalTensorWithIndex;

TfLiteContext ctx{};
static const int MAX_TFL_TENSOR_COUNT = 4;
static TfLiteTensorWithIndex tflTensors[MAX_TFL_TENSOR_COUNT];
static const int MAX_TFL_EVAL_COUNT = 4;
static TfLiteEvalTensorWithIndex tflEvalTensors[MAX_TFL_EVAL_COUNT];
TfLiteRegistration registrations[OP_LAST];

namespace g0 {
const TfArray<2, int> tensor_dimension0 = { 2, { 1,183 } };
const TfArray<1, float> quant0_scale = { 1, { 0.14448767900466919, } };
const TfArray<1, int> quant0_zero = { 1, { 74 } };
const TfLiteAffineQuantization quant0 = { (TfLiteFloatArray*)&quant0_scale, (TfLiteIntArray*)&quant0_zero, 0 };
const MODEL_SECTION(EI_MODEL_SECTION) ALIGN(8) int32_t tensor_data1[2] = { -62, 62, };
const TfArray<1, int> tensor_dimension1 = { 1, { 2 } };
const TfArray<1, float> quant1_scale = { 1, { 0.00063765299273654819, } };
const TfArray<1, int> quant1_zero = { 1, { 0 } };
const TfLiteAffineQuantization quant1 = { (TfLiteFloatArray*)&quant1_scale, (TfLiteIntArray*)&quant1_zero, 0 };
const MODEL_SECTION(EI_MODEL_SECTION) ALIGN(16) int8_t tensor_data2[2*10] = { 
  57, -106, 67, 110, 127, -82, -44, -110, 6, 85, 
  80, 22, -19, -30, -101, 6, -110, 61, -87, 34, 
};
const TfArray<2, int> tensor_dimension2 = { 2, { 2,10 } };
const TfArray<1, float> quant2_scale = { 1, { 0.0058457762934267521, } };
const TfLiteAffineQuantization quant2 = { (TfLiteFloatArray*)&quant2_scale, (TfLiteIntArray*)&g0::quant1_zero, 0 };
const MODEL_SECTION(EI_MODEL_SECTION) ALIGN(16) int32_t tensor_data3[10] = { 93, 74, -35, 3, 28, 48, -29, 68, -34, -43, };
const TfArray<1, int> tensor_dimension3 = { 1, { 10 } };
const TfArray<1, float> quant3_scale = { 1, { 0.00058112840633839369, } };
const TfLiteAffineQuantization quant3 = { (TfLiteFloatArray*)&quant3_scale, (TfLiteIntArray*)&g0::quant1_zero, 0 };
const MODEL_SECTION(EI_MODEL_SECTION) ALIGN(16) int8_t tensor_data4[10*20] = { 
  44, -53, -45, 25, 107, 26, 127, -81, 20, -32, 20, 22, 61, 124, 50, -60, 10, -18, -55, 35, 
  -41, -92, 73, 71, 57, -28, -27, -78, -66, 23, -42, -37, 63, 33, 65, 88, -33, 35, -34, -19, 
  -25, -88, -4, 84, -51, -57, -39, 15, -44, -15, 23, 43, -15, -85, -11, -63, 70, -86, -88, -80, 
  56, 15, 74, -2, -60, 64, -55, -34, -30, 63, 87, 38, -69, -80, 2, -42, -26, -36, 98, 79, 
  -33, 58, -83, -37, -71, 57, -35, 29, -82, 55, 81, 47, -20, 39, 23, -86, -46, 90, 69, 57, 
  -82, 64, -58, 55, -25, -98, 4, 67, -93, -41, 69, 58, -36, 70, -19, -49, -24, 55, -63, -2, 
  88, 41, -56, -72, 64, 65, 3, -19, -30, 1, 53, 31, -67, -40, 7, -20, 46, -16, -6, -18, 
  -11, 83, 54, 64, 0, 81, 90, -96, 112, -21, -48, 105, 66, -8, -83, 52, 84, 9, 12, 73, 
  60, 33, 39, 27, 69, 25, -102, -14, -33, 9, 81, 14, -6, -101, -30, 77, -80, 60, -32, -18, 
  43, -59, -24, -10, 65, 84, -27, 14, 56, -78, -52, 35, -72, -53, 48, -23, -25, 78, 8, 72, 
};
const TfArray<2, int> tensor_dimension4 = { 2, { 10,20 } };
const TfArray<1, float> quant4_scale = { 1, { 0.0044149179011583328, } };
const TfLiteAffineQuantization quant4 = { (TfLiteFloatArray*)&quant4_scale, (TfLiteIntArray*)&g0::quant1_zero, 0 };
const MODEL_SECTION(EI_MODEL_SECTION) ALIGN(16) int32_t tensor_data5[20] = { -55, 152, 87, 139, -57, 43, 156, -84, 107, 11, -4, 259, 141, 125, -37, 129, 115, 104, 77, 121, };
const TfArray<1, int> tensor_dimension5 = { 1, { 20 } };
const TfArray<1, float> quant5_scale = { 1, { 0.00025104783708229661, } };
const TfLiteAffineQuantization quant5 = { (TfLiteFloatArray*)&quant5_scale, (TfLiteIntArray*)&g0::quant1_zero, 0 };
const MODEL_SECTION(EI_MODEL_SECTION) ALIGN(16) int8_t tensor_data6[20*183] = { 
  -15, -13, -15, 98, 47, 45, 25, -65, 30, -78, 0, 40, -78, -54, -17, 86, 17, 60, -56, -57, 71, -38, 70, 6, -100, 51, -57, -56, -68, -88, 19, 23, 52, -84, -96, 35, -71, 59, -22, -75, 34, -19, -86, -52, -106, 60, -52, 68, -79, -86, -35, -108, 23, -30, -87, 55, 81, 59, 80, 41, 23, -52, 6, -49, -22, -65, -6, 26, 78, -15, 21, -85, -62, -30, -30, -65, 53, 31, -28, 63, 9, -22, -32, 16, -29, 0, -112, -26, -89, -106, 22, -35, -61, 69, -24, -106, 79, 38, -85, -44, -15, -112, 2, 31, -45, -59, -55, -14, -71, -63, 61, 13, -13, 46, -65, 82, -50, 24, -111, 13, 26, -17, 14, 71, -89, -30, 50, -8, 66, -26, -96, -69, 76, 13, 65, -64, -4, 95, -19, 10, 57, 10, -53, -48, -22, -5, -11, 54, -52, -47, -45, 50, -34, 45, 21, -41, 71, 18, -104, -17, 14, 52, -70, -47, -32, -36, -64, -65, 63, 82, -53, -19, -25, -30, -17, 69, 47, 39, -74, -81, -2, 24, -95, 
  -111, -11, 75, 28, -13, 28, 44, 44, 59, 105, -50, 48, 15, 9, 46, -65, 63, 36, 89, -65, -22, -13, 78, -24, 39, 32, -35, 52, -40, -85, -31, 79, 75, 87, 61, -38, -88, -20, 13, -58, -56, -70, 77, 51, 40, -38, 60, -80, -5, -12, -101, -26, -15, -55, -31, -115, -107, 63, 66, -93, -27, 51, -35, -10, -24, 8, 61, -108, 42, -38, 77, -67, 46, -18, 3, 69, -42, -68, -23, 72, -26, -111, -62, -9, 35, -1, -31, -83, 8, -33, 21, 20, 76, 10, -7, 43, -57, -91, 5, -98, 9, 80, -14, -27, -81, 32, 59, -75, -31, -31, -40, -96, 85, 17, -39, 75, 14, 9, -83, -79, 13, -102, -45, -59, 45, -13, -6, 32, -87, 84, -42, -38, 52, -35, 88, 57, -65, -36, -21, 55, -99, 9, -11, -41, 6, 63, 60, 45, -40, -60, -46, -34, -45, -40, -42, 65, 57, 86, -69, -48, -60, -81, 52, -46, -83, -36, -80, 6, -97, -33, -25, -64, 39, -36, -22, 54, 37, -47, -67, -70, -85, 15, 27, 
  73, -7, -115, -65, 28, -68, 40, 61, 74, -24, -87, 3, -80, 40, -63, 62, 28, 55, 2, 47, 104, -93, 55, -74, 12, -15, 104, 56, -46, -72, -37, 78, 62, -62, -15, -23, -70, 9, 72, -59, 64, 63, -78, -1, 49, -3, -35, -60, 53, -9, 64, -11, -8, 6, 56, -75, 16, 21, 22, -16, 96, -20, 6, -10, -8, 59, 27, -49, -24, -26, 3, -86, 17, 92, -9, -82, -78, 56, -40, -48, 52, -38, 51, 13, 24, 31, -11, 11, -64, 12, -57, 96, 37, -19, 112, 81, 46, 64, 49, 42, -82, -74, -45, -61, 57, -25, 100, 83, 22, -3, -33, 63, 19, -67, -51, -77, 54, 107, -13, 52, -39, 88, 97, -106, 81, 98, 42, 80, -66, 12, 73, -41, 36, 63, 60, 52, -55, 58, 43, 18, -31, 70, 80, 84, -80, 3, -79, 12, -31, 17, 48, -46, -31, 11, 41, 98, 57, -30, 75, -75, 6, 70, 27, 96, 4, -53, -41, -23, -46, -24, -85, -36, -4, -105, -48, -3, 39, -59, -56, -90, 58, -77, -1, 
  -62, 54, -86, 55, -23, 59, -8, 98, 53, -79, 83, 81, 51, 64, 44, -20, -72, -46, 38, 75, -47, 53, -62, -41, 60, 58, -56, 73, 96, 79, -25, 60, 101, -25, 76, 29, 116, -72, 39, 86, -65, 73, 16, 93, 111, -55, 18, -41, 79, 63, -47, 13, -4, -86, 32, -65, -73, -83, -24, 5, 102, 47, 108, 43, -58, -101, 57, -85, -59, -85, 62, -44, -44, -60, 32, 45, -14, 108, 48, 112, 37, 84, 90, -12, 1, -59, 10, -20, 77, -23, 56, 48, -66, 27, 96, -21, -42, -4, 91, -11, -19, 6, 93, -41, -30, 11, 29, -11, 34, 44, -64, 33, 12, 87, 21, 100, -78, 15, 80, 7, -78, 90, 0, 38, -91, 11, 5, -48, 33, 38, -32, -85, -24, 85, -21, -52, -70, 13, -4, 50, 41, 50, 17, -36, 23, 25, -43, -73, -42, -78, -23, -57, 81, 84, -74, 20, 27, 96, -50, -77, -35, 35, 73, 57, -45, 37, -23, -64, 30, 4, -105, -53, -7, -92, 50, 34, 25, 38, 67, -96, -20, 76, 90, 
  85, 19, 3, -65, -84, -82, 74, -32, -55, 47, -38, 12, -63, -44, -67, 56, 59, 65, -7, -20, -7, 93, -16, -11, -29, 10, 77, 72, -85, -73, 48, -59, 92, -64, -24, -39, -22, -81, 28, 63, 16, 36, -79, -29, 60, -55, 77, 64, -13, 72, 67, 76, -72, -23, -27, 93, 63, 77, 88, 61, -76, -72, 92, 79, 12, 54, -37, 101, -93, -20, -81, 31, 72, 39, 45, 50, -28, -23, -42, -32, 80, -86, 58, -60, 40, -49, 27, -65, 70, -30, -32, 9, 30, 69, 34, 8, 24, -16, -67, -72, -17, -81, 26, -24, 93, -46, -87, -18, -60, 38, -57, 1, -53, 1, 40, -6, -35, -63, -48, -7, 92, -24, -52, -17, -84, -4, 82, -70, -39, 46, -24, -9, 47, -9, -14, -15, 57, 57, -84, 75, 35, 19, 64, 13, 70, -87, 82, 23, -79, -85, -16, 41, -38, -70, 39, 91, 69, -61, 79, -79, -41, 61, -86, -18, -91, -61, 22, -31, 90, -30, -28, -95, -81, 47, 43, 6, -44, 48, -35, 27, -47, 0, 25, 
  -43, 77, 17, 5, -24, -74, 12, 99, -37, 21, -95, -41, -103, 37, 10, -7, -94, 23, -36, 0, -85, -81, -11, -52, 69, -33, 17, -23, -55, 88, -28, -20, 65, -71, 14, -99, 57, -66, 31, 77, 59, 29, -76, -37, 3, -110, -85, -78, -16, 51, 76, -26, 20, -51, 34, 49, 24, -21, 47, -1, 19, -104, 68, -67, -30, 3, -43, 71, 78, 38, 85, -51, 60, -80, -105, -71, -21, -26, 52, -9, -85, 27, -56, 72, -12, -80, 19, -15, 88, -26, 4, -1, -67, 68, -3, -15, -19, 25, -9, 53, -21, 21, 70, -64, 13, 8, 88, -72, 28, 47, -17, -16, 22, 49, 62, 11, 41, -83, 19, -68, -104, 48, -86, 13, -1, 90, -18, -43, -52, -91, 6, 31, -62, -34, 19, 83, 37, -80, 75, 94, 61, 6, 6, -57, 8, -62, 80, 86, 84, -46, 73, 21, 29, -93, 65, -10, -36, 69, -46, -14, 48, -100, 47, -82, 59, -103, 86, -59, 52, 8, -7, 78, -88, -5, -88, 21, -81, -33, 90, 41, 75, 26, -102, 
  55, -40, -41, -66, -75, -103, -41, 62, -40, 4, -8, -10, 3, 61, 44, -10, -31, -37, 111, 92, -29, 36, -28, 78, -24, 5, 112, -69, 90, 34, 75, -82, 10, -4, -71, 64, -80, 49, -69, 108, 0, 31, 4, 19, -34, -67, 112, -37, 7, -4, -48, 97, -70, 73, 42, -1, 17, 90, 62, -27, -61, 20, 70, -61, 32, 9, -93, 56, -76, -54, 17, 92, -22, 53, 38, 69, 58, 90, 58, -26, 91, 79, 23, 46, -38, -10, 77, 40, -32, -30, -60, 71, -29, 101, -20, -84, -35, -48, -75, 3, -46, -44, 17, -14, 109, 0, 3, -48, -34, 14, 13, 70, 81, -82, 38, -9, 66, -27, -71, -22, -40, 32, -80, 2, -34, -81, -11, 42, -30, -86, 37, -96, -11, 48, 71, 86, -72, 45, 65, 88, 26, 46, -46, -100, -70, 13, 69, -86, 77, 68, -59, 90, 0, 86, -39, -91, 19, -35, 71, -43, 97, 36, -20, -67, 64, -38, -36, 57, 72, 23, -91, 76, 67, 100, 42, -85, -97, -39, 40, -16, 73, -31, 87, 
  61, -87, 51, 90, 94, 33, 29, 39, -36, 75, -28, 90, -32, 45, -57, -87, -29, -51, -67, 82, 68, -73, -53, -3, -26, 84, -35, 23, -94, -13, 16, 82, 14, -87, -35, -92, -23, 18, 54, -48, -32, 14, 84, 78, 18, -24, 6, -97, -71, 34, -80, -38, -28, 7, -36, -71, -94, 53, 49, -110, -75, -46, 57, -55, 39, 33, 22, -43, -50, 93, -66, 7, -30, 28, -13, 6, -44, 55, -56, 35, 82, -113, 43, -20, 9, -108, 26, 29, 52, -45, -27, -91, 3, -67, -92, -54, -45, -97, -9, 76, -45, 46, -14, -93, -22, -44, -53, -93, 81, -47, -68, -91, 5, 32, 72, -43, 64, -27, -48, 26, -44, 15, -23, -68, 28, 47, -59, -84, -22, -19, 54, -11, -26, 10, -73, 53, -20, -19, 10, -7, -15, 47, 40, 60, 19, 47, -13, -76, 63, 15, 41, -53, -3, 49, 57, 25, -43, 1, -31, -45, -22, -89, 18, -26, -24, -37, -97, 44, -83, -17, 57, -38, -42, 5, -85, 59, -44, -92, -49, -18, -12, 75, -35, 
  62, 93, 42, -18, -98, 45, -28, -73, -22, -24, -6, 49, 48, -43, 11, -43, 44, -37, 108, 34, 105, 82, 104, 57, 78, 79, 85, 3, 89, -81, 57, -92, -13, -1, -80, -27, -80, 88, -59, 15, -44, -44, -78, -24, -70, 46, -16, 5, -34, 47, -73, -80, 111, -52, 57, 54, 21, 54, -2, -30, 63, -14, 94, -68, 21, -97, 80, 64, 55, -56, -47, -33, 12, -81, -30, -86, -67, -41, -46, 95, -35, -43, -64, -35, 92, 31, 8, 47, 66, 61, 5, -84, -83, -15, 82, 1, 98, 31, 50, -50, -64, -54, -38, 52, 23, 84, -11, 25, 38, 4, -32, 77, 29, 56, 85, 95, 34, -60, 85, -20, 74, 83, 8, -25, 53, -86, 25, 106, -79, 81, -85, 77, -100, -30, -70, -1, -68, 88, 21, 73, 69, -19, 57, -55, -75, 18, 45, -65, -87, -56, 91, 61, -47, -64, -48, 56, -95, -87, 62, -9, 65, 16, 22, -72, -21, -88, -83, 27, 20, 22, 89, -3, 24, 83, 87, -41, 77, -26, -92, 45, -78, -29, -66, 
  -95, 52, -77, 5, -45, 69, -79, 9, -44, -91, -75, -59, -93, -24, -64, 73, -17, 49, 60, -73, -32, 49, 6, 79, 86, 54, -7, 18, -13, 35, -52, -38, -83, -16, 56, 20, 53, 61, -25, 4, 12, 31, -64, 12, -54, -111, 50, 26, 70, -90, 37, 79, -107, -104, -68, 8, 44, -4, -105, 15, -95, -66, -57, 88, -1, -16, -91, -26, -68, 37, -67, 58, 77, -7, -27, -83, 81, -36, -108, 56, 38, 82, -95, -65, -80, 64, -79, -63, 36, 8, 68, 28, -37, -23, 0, 78, -14, -102, -86, -54, 51, -86, -94, -45, 3, -16, -110, -56, 28, 24, 34, -65, -53, -54, 73, 55, 69, 45, 55, 37, 66, -107, -62, 84, -61, 44, 68, -42, -58, 30, -52, -60, -37, -28, -84, 42, 82, -4, 17, -92, 82, -59, 42, -10, 2, 28, 83, -13, -99, -11, -100, -96, -56, -81, 83, -84, -83, 40, -94, -28, -31, -105, 36, 32, -6, -106, -44, -52, -6, -61, 15, 63, 56, -37, -92, -58, 5, -76, 63, -28, -108, -10, 47, 
  86, 25, 54, -83, -63, -31, 66, 24, 1, 37, -68, 35, 29, -77, 43, -63, -9, -10, 25, 11, -94, 36, -99, 65, 69, -29, -58, -42, 59, 56, -104, -86, -85, -30, 88, 77, -39, -87, -87, 17, 27, -23, -7, -43, -45, 56, -5, -103, 45, 26, -43, -74, -31, -17, 60, 77, -73, -50, 12, -25, 20, 20, 59, 83, 18, -89, -96, 36, 35, 17, 66, 0, -33, -51, -13, 76, 16, -72, 32, 83, -55, -83, 16, -76, -53, 54, -48, 13, -49, -61, -12, 81, 35, -63, -26, -7, -67, 21, -100, 35, 71, 49, 34, 30, 36, -57, -10, -101, 62, -6, -37, -10, 21, 36, -104, 4, -38, 73, -46, -67, -59, -91, -60, -75, 81, 44, -74, 15, 40, -93, 59, -42, -73, -89, 32, 31, -13, -89, 90, 62, -35, -64, -38, 29, -16, -93, -7, -31, 45, -39, -7, 46, 42, 82, -53, -50, -39, 11, -19, -2, 76, -87, 74, 33, -9, 7, 23, -58, -2, 13, 65, -35, -50, -89, 75, 83, 34, 3, 30, 87, 24, -90, 39, 
  2, 31, 55, -31, -101, -104, 80, -50, 68, -21, 93, 104, 77, 97, -36, 41, -39, -26, 102, 23, 2, -4, 110, 17, 40, 60, 86, 69, 113, 47, 10, -1, 24, -26, 35, -11, -50, 41, 43, 69, 58, 81, 100, 8, -24, -3, 50, 75, -56, 17, -50, 90, 54, 53, 104, 70, 64, -1, 28, -67, 67, 76, 24, -54, 72, 40, 63, -27, -21, -23, -75, 9, -48, -51, 91, 40, 56, 95, 68, 48, 79, 126, -48, -23, -60, -55, -27, 80, 15, 82, 67, -60, -78, -53, 40, 50, 65, 89, 7, -4, 9, 15, 94, 92, 89, 69, 41, 127, 32, -52, 9, 49, 68, 57, -66, -47, -72, 25, 79, 56, 119, 106, 1, -24, -11, -10, -36, -66, 103, 76, -57, 60, 42, -16, -82, 21, -81, 55, -78, 18, -47, -20, -34, 40, 73, -78, 10, -36, -65, -46, 74, -52, -11, 1, -25, 25, 45, 105, 2, -14, 90, -32, 2, 48, -83, 46, -39, -65, 54, 10, 33, 11, 85, -45, 73, -17, 73, 85, -26, 79, -36, 83, 44, 
  -25, -94, -28, -29, 45, -96, -71, -108, -93, 31, -41, -108, 7, 35, -49, 61, 7, -34, 89, -14, 61, 64, -44, 79, 66, -13, 23, -38, 85, -22, -35, 33, -84, 99, 72, 75, 98, -43, -64, -45, 0, 25, -66, -29, -77, -15, 114, 78, 7, 119, 86, -68, -84, 24, -65, -96, -64, 38, -7, 56, -26, -58, -57, 36, 34, 22, 60, 29, 3, 65, 0, -42, 50, 71, 37, -88, -30, 77, -77, -72, 30, 61, 103, 81, 109, 91, -75, -43, 17, 72, -58, 101, 32, 30, -54, -76, 49, 24, 76, -12, -57, 70, 59, 44, 13, -65, 11, 96, 67, 32, 11, -18, 17, -35, -55, 20, -43, -26, 97, 63, 67, 0, 35, -43, 17, 58, -83, 73, -36, 99, 10, 69, 96, 10, 46, 103, 58, -9, 64, 82, 43, 1, 59, -39, -46, -34, -104, 58, -41, -101, 27, -61, 7, 40, -6, 86, -80, 51, -35, -40, 82, -19, -90, -31, -64, -88, 1, 97, -49, -61, 76, -70, -99, 23, 28, 42, -54, 12, -48, -97, -75, -23, -33, 
  41, -95, -72, -6, 75, 108, -68, 109, 7, 45, 41, 47, 104, 37, -14, -64, -91, -10, -77, -34, -72, -75, -16, -44, -50, -99, -59, 94, -4, 20, 47, -76, -52, -72, 11, 48, 69, 17, 102, -9, 109, 61, 90, -61, 93, -40, -2, 53, 98, 61, 34, 52, -65, -39, 97, -27, 29, 79, 62, -4, 9, -18, 6, -84, 59, 61, 91, 89, 32, 106, -68, -4, 76, -4, 63, -57, -42, -38, 55, -44, -24, 60, -12, -17, 67, 29, 85, 98, 9, -82, 21, 37, -49, 71, -77, -54, -26, 111, 20, -31, 34, 100, 38, -60, -48, 53, 12, 1, -15, 55, 77, -75, -46, 43, -52, 61, 66, -43, 69, -73, 9, -25, -51, -32, 84, 27, -67, 80, 38, 84, -81, -79, 23, -8, -88, -101, 28, -53, -63, 65, 73, -19, 54, -92, -22, 74, 49, -51, 54, 90, -41, -79, -83, -87, -28, 78, -60, -14, 66, -36, -18, 66, 49, 22, 10, 8, 58, -92, -82, -39, 89, -31, 44, 38, -22, -83, 11, 58, -24, -1, 56, -65, -46, 
  84, -78, -46, 27, 17, -49, -34, 42, 54, 39, 100, -94, -82, 96, -93, -32, -84, 13, 53, -81, 76, 88, -55, 66, -94, -63, -21, -87, 70, -35, 90, -62, -53, 53, -21, -70, -87, 14, 69, -100, -108, 72, -102, 55, -24, 52, -46, -74, -106, -53, -31, 32, 21, -26, -81, -73, 77, -36, 73, -66, 2, 31, -60, 103, 8, 93, 75, 52, -27, 41, -1, -71, 77, -51, 73, 36, -51, 16, -13, -2, 42, 0, -75, -53, 9, -88, 64, -1, -90, 11, -53, 21, -26, 44, -96, -15, 63, 64, 67, 87, -102, 81, -72, 64, -91, -44, 51, -96, -48, -67, -53, -12, 85, 42, -100, 51, 86, -93, 64, 70, -62, -24, -16, -58, -70, -77, -8, 82, 79, -75, -43, -68, -11, -8, 61, 45, 84, 40, -85, 80, -29, 42, -29, -52, 63, 59, 29, -65, 53, 68, -35, -77, 68, 57, 46, -59, -34, 51, -34, -88, 30, 53, -1, -14, -82, -53, 35, 25, 67, -50, 56, 43, -47, -57, -86, 48, 86, 54, 27, 52, -102, -72, -80, 
  8, 77, -97, -92, -103, 16, -23, 6, 27, 26, -15, 31, -58, 44, 44, 74, 16, 43, 36, 62, -81, 91, -80, 42, 21, 8, -33, -24, -8, -46, 36, -22, -23, 63, 2, 33, 15, -75, 39, 100, 69, -37, 40, -58, 82, -49, -76, -11, -57, 79, 52, 3, 79, 91, 45, -50, 91, 49, -64, 89, 4, -48, 40, -62, 19, 30, 21, -55, 14, 70, -76, 91, 91, 97, 52, 81, -32, 30, 93, 50, -54, -40, 31, 107, 114, 90, 25, 65, 69, 110, 9, 110, 34, 77, 109, 84, -65, 64, 67, 59, 88, 98, 105, -20, 80, -47, 30, 53, 112, -40, 46, -67, -81, 32, 71, -50, -21, -74, 10, 3, -39, 32, -11, -41, 38, -17, -49, -39, -22, -68, -14, -27, 21, 83, -65, -40, -56, -36, -1, -3, -72, 10, -52, -6, 90, 30, 107, 23, 0, -71, 53, -30, -37, 79, 61, 41, -44, 73, -43, -75, -50, 95, -76, 62, 16, -21, -79, 67, 61, 6, -21, -47, -53, -65, 49, 90, -16, -95, -82, -20, 104, -35, -59, 
  10, -64, -68, -9, 67, -39, -48, -85, 23, -98, -99, -43, 13, 42, -40, 30, -79, -47, 50, -24, -73, -52, 42, -34, 46, -23, -7, 85, -60, 78, 46, 12, 89, -47, -21, -43, 43, -69, -29, 18, 12, -7, 28, 84, 1, -65, 90, -76, 6, -27, 19, 0, -7, -64, -9, -87, -7, -12, 74, -59, -62, 98, -43, -19, -57, 38, 6, -34, 3, 100, -73, -10, -40, 95, 84, 60, -37, 32, -49, 31, 33, 102, -83, -19, 9, 81, 19, -48, 104, -13, 22, 106, 103, 30, 29, -32, 24, -15, 101, -32, -2, -2, -8, -5, 98, 83, 60, 106, -2, -43, 70, 39, 82, -79, -79, 41, -19, 96, -46, -73, 58, -5, -57, -14, 89, 29, 4, -74, 100, 99, -6, 89, -7, 25, -67, 1, 63, -76, 79, -105, 62, -42, 43, -41, -43, 42, 103, 71, 5, 21, -49, -12, 75, 47, -2, -43, 48, 86, -66, -25, -89, 32, -18, 79, 75, -54, 82, -95, -29, 17, 46, -15, 48, 74, 39, -29, 42, 71, -93, 92, 77, -38, -81, 
  -28, 53, 91, 79, 83, -18, -25, 95, 46, -5, -32, 95, -38, 66, -73, -35, -72, 20, 82, -60, 45, -47, -79, 90, -57, -84, -60, 21, -18, -66, -22, -83, -5, 16, 1, 89, 84, -62, 59, -93, -104, -40, 87, -41, 19, -74, -1, 84, -84, 38, -56, -68, 79, 41, 18, -83, 63, -96, -32, -57, 22, -88, 43, 106, -27, 56, -22, -8, 21, -38, 64, -47, 51, 78, 35, 14, -90, -84, 60, -87, -90, -100, -97, 6, 40, 80, -48, 13, 12, 34, -11, 85, -101, -60, 60, 41, 31, -46, 77, -100, 75, 30, -2, -68, -65, -108, -88, 83, 17, -106, -98, -54, 67, -5, -75, 21, 59, 87, -58, -23, -68, 82, 20, 90, 3, 38, 40, 74, 83, 77, 43, 35, -66, 72, 3, -24, 88, 54, 19, -19, -89, -77, -78, 73, 47, -9, 19, 32, 75, -10, 47, 81, -98, -75, 23, -32, -24, 35, 38, -51, -79, -91, -97, -7, 79, 70, -89, -48, 80, 17, -98, -33, 65, 70, 72, 76, 17, 12, -37, 70, 94, 80, 85, 
  -94, -16, 54, -84, 59, 22, -51, 4, 11, -21, -78, -29, -82, -71, -76, -54, 2, -63, -61, 30, -58, 71, -64, 66, -52, -97, -15, -39, -99, -79, 34, -54, -74, -100, 86, 66, 15, -78, -88, -45, -83, 8, -71, 38, -9, -27, 87, 10, -90, -103, -7, -96, 32, -67, 52, -81, -76, -73, -39, 59, -40, -65, -61, 85, 44, -45, 73, -92, -8, 73, 48, 40, 60, -58, -106, 17, 75, 6, -41, 21, 16, 29, 72, -16, 34, 5, 71, -2, -17, -91, -106, 65, 50, -44, -83, -84, 41, 9, 80, -73, -111, 85, 12, -2, -61, -9, -62, -82, -6, 44, -78, 0, -108, -63, -65, -84, 33, 29, -97, -99, 74, -65, -31, 25, 28, 95, -21, -50, -3, 0, -94, -51, -3, -12, -18, -56, 22, 92, -41, 33, 74, -24, -9, -40, 77, 67, 19, 27, -20, -27, -8, 34, 76, 39, -3, -48, 46, -43, 88, -20, 22, -45, 37, -75, -28, -84, -42, 98, -7, 62, 83, -70, 96, 75, -6, 53, -57, -45, 71, 61, 42, -40, -89, 
  -15, 73, 0, -39, -6, -20, 44, 3, 89, 86, -68, 75, 59, -13, -15, -57, -18, -95, -64, 18, -45, -96, 70, -86, -12, -7, -75, -55, 20, 65, -80, 4, 73, -73, -5, 23, -101, 10, -5, -24, -78, -82, 12, 43, -9, -87, -98, 20, -16, -5, 16, 36, -93, 22, 32, -63, 40, -94, -77, 72, -86, 54, -80, 48, -81, -8, -33, -83, -87, -73, -107, 54, -39, -23, -31, 24, -93, -108, -97, -53, 68, -14, -10, -89, -26, 28, 78, -19, 20, -8, -102, 6, -76, -31, 19, -91, -74, -78, 90, -67, -39, 67, 59, -84, -25, 55, -99, -75, -12, 53, 92, 67, -89, -68, 37, 6, -17, -63, -52, -14, 92, 9, 37, -48, 30, 68, -84, -8, -59, -8, -78, -6, 73, 52, 12, 97, 44, 70, -65, -54, 26, -71, 34, 32, 6, 77, -72, 70, -28, 36, -91, 58, -15, -34, 2, -94, -76, -13, 5, 60, -72, -92, 79, -24, 35, -73, 65, 55, 78, -65, -35, 66, 39, -23, 13, 52, -77, 7, -59, -31, 18, -76, -43, 
};
const TfArray<2, int> tensor_dimension6 = { 2, { 20,183 } };
const TfArray<1, float> quant6_scale = { 1, { 0.001737503451295197, } };
const TfLiteAffineQuantization quant6 = { (TfLiteFloatArray*)&quant6_scale, (TfLiteIntArray*)&g0::quant1_zero, 0 };
const TfArray<2, int> tensor_dimension7 = { 2, { 1,20 } };
const TfArray<1, float> quant7_scale = { 1, { 0.1316283643245697, } };
const TfArray<1, int> quant7_zero = { 1, { -128 } };
const TfLiteAffineQuantization quant7 = { (TfLiteFloatArray*)&quant7_scale, (TfLiteIntArray*)&quant7_zero, 0 };
const TfArray<2, int> tensor_dimension8 = { 2, { 1,10 } };
const TfArray<1, float> quant8_scale = { 1, { 0.1090792715549469, } };
const TfLiteAffineQuantization quant8 = { (TfLiteFloatArray*)&quant8_scale, (TfLiteIntArray*)&g0::quant7_zero, 0 };
const TfArray<2, int> tensor_dimension9 = { 2, { 1,2 } };
const TfArray<1, float> quant9_scale = { 1, { 0.12769588828086853, } };
const TfArray<1, int> quant9_zero = { 1, { 42 } };
const TfLiteAffineQuantization quant9 = { (TfLiteFloatArray*)&quant9_scale, (TfLiteIntArray*)&quant9_zero, 0 };
const TfArray<1, float> quant10_scale = { 1, { 0.00390625, } };
const TfLiteAffineQuantization quant10 = { (TfLiteFloatArray*)&quant10_scale, (TfLiteIntArray*)&g0::quant7_zero, 0 };
const TfLiteFullyConnectedParams opdata0 = { kTfLiteActRelu, kTfLiteFullyConnectedWeightsFormatDefault, false, false };
const TfArray<3, int> inputs0 = { 3, { 0,6,5 } };
const TfArray<1, int> outputs0 = { 1, { 7 } };
const TfLiteFullyConnectedParams opdata1 = { kTfLiteActRelu, kTfLiteFullyConnectedWeightsFormatDefault, false, false };
const TfArray<3, int> inputs1 = { 3, { 7,4,3 } };
const TfArray<1, int> outputs1 = { 1, { 8 } };
const TfLiteFullyConnectedParams opdata2 = { kTfLiteActNone, kTfLiteFullyConnectedWeightsFormatDefault, false, false };
const TfArray<3, int> inputs2 = { 3, { 8,2,1 } };
const TfArray<1, int> outputs2 = { 1, { 9 } };
const TfLiteSoftmaxParams opdata3 = { 1 };
const TfArray<1, int> inputs3 = { 1, { 9 } };
const TfArray<1, int> outputs3 = { 1, { 10 } };
};

TensorInfo_t tensorData[] = {
{ kTfLiteArenaRw, kTfLiteInt8, (int32_t*)(tensor_arena + 0), (TfLiteIntArray*)&g0::tensor_dimension0, 183, {kTfLiteAffineQuantization, const_cast<void*>(static_cast<const void*>(&g0::quant0))}, },
{ kTfLiteMmapRo, kTfLiteInt32, (int32_t*)g0::tensor_data1, (TfLiteIntArray*)&g0::tensor_dimension1, 8, {kTfLiteAffineQuantization, const_cast<void*>(static_cast<const void*>(&g0::quant1))}, },
{ kTfLiteMmapRo, kTfLiteInt8, (int32_t*)g0::tensor_data2, (TfLiteIntArray*)&g0::tensor_dimension2, 20, {kTfLiteAffineQuantization, const_cast<void*>(static_cast<const void*>(&g0::quant2))}, },
{ kTfLiteMmapRo, kTfLiteInt32, (int32_t*)g0::tensor_data3, (TfLiteIntArray*)&g0::tensor_dimension3, 40, {kTfLiteAffineQuantization, const_cast<void*>(static_cast<const void*>(&g0::quant3))}, },
{ kTfLiteMmapRo, kTfLiteInt8, (int32_t*)g0::tensor_data4, (TfLiteIntArray*)&g0::tensor_dimension4, 200, {kTfLiteAffineQuantization, const_cast<void*>(static_cast<const void*>(&g0::quant4))}, },
{ kTfLiteMmapRo, kTfLiteInt32, (int32_t*)g0::tensor_data5, (TfLiteIntArray*)&g0::tensor_dimension5, 80, {kTfLiteAffineQuantization, const_cast<void*>(static_cast<const void*>(&g0::quant5))}, },
{ kTfLiteMmapRo, kTfLiteInt8, (int32_t*)g0::tensor_data6, (TfLiteIntArray*)&g0::tensor_dimension6, 3660, {kTfLiteAffineQuantization, const_cast<void*>(static_cast<const void*>(&g0::quant6))}, },
{ kTfLiteArenaRw, kTfLiteInt8, (int32_t*)(tensor_arena + 192), (TfLiteIntArray*)&g0::tensor_dimension7, 20, {kTfLiteAffineQuantization, const_cast<void*>(static_cast<const void*>(&g0::quant7))}, },
{ kTfLiteArenaRw, kTfLiteInt8, (int32_t*)(tensor_arena + 0), (TfLiteIntArray*)&g0::tensor_dimension8, 10, {kTfLiteAffineQuantization, const_cast<void*>(static_cast<const void*>(&g0::quant8))}, },
{ kTfLiteArenaRw, kTfLiteInt8, (int32_t*)(tensor_arena + 16), (TfLiteIntArray*)&g0::tensor_dimension9, 2, {kTfLiteAffineQuantization, const_cast<void*>(static_cast<const void*>(&g0::quant9))}, },
{ kTfLiteArenaRw, kTfLiteInt8, (int32_t*)(tensor_arena + 0), (TfLiteIntArray*)&g0::tensor_dimension9, 2, {kTfLiteAffineQuantization, const_cast<void*>(static_cast<const void*>(&g0::quant10))}, },
};

#ifndef TF_LITE_STATIC_MEMORY
TfLiteNode tflNodes[4] = {
{ (TfLiteIntArray*)&g0::inputs0, (TfLiteIntArray*)&g0::outputs0, (TfLiteIntArray*)&g0::inputs0, nullptr, nullptr, const_cast<void*>(static_cast<const void*>(&g0::opdata0)), nullptr, 0, },
{ (TfLiteIntArray*)&g0::inputs1, (TfLiteIntArray*)&g0::outputs1, (TfLiteIntArray*)&g0::inputs1, nullptr, nullptr, const_cast<void*>(static_cast<const void*>(&g0::opdata1)), nullptr, 0, },
{ (TfLiteIntArray*)&g0::inputs2, (TfLiteIntArray*)&g0::outputs2, (TfLiteIntArray*)&g0::inputs2, nullptr, nullptr, const_cast<void*>(static_cast<const void*>(&g0::opdata2)), nullptr, 0, },
{ (TfLiteIntArray*)&g0::inputs3, (TfLiteIntArray*)&g0::outputs3, (TfLiteIntArray*)&g0::inputs3, nullptr, nullptr, const_cast<void*>(static_cast<const void*>(&g0::opdata3)), nullptr, 0, },
};
#else
TfLiteNode tflNodes[4] = {
{ (TfLiteIntArray*)&g0::inputs0, (TfLiteIntArray*)&g0::outputs0, (TfLiteIntArray*)&g0::inputs0, nullptr, const_cast<void*>(static_cast<const void*>(&g0::opdata0)), nullptr, 0, },
{ (TfLiteIntArray*)&g0::inputs1, (TfLiteIntArray*)&g0::outputs1, (TfLiteIntArray*)&g0::inputs1, nullptr, const_cast<void*>(static_cast<const void*>(&g0::opdata1)), nullptr, 0, },
{ (TfLiteIntArray*)&g0::inputs2, (TfLiteIntArray*)&g0::outputs2, (TfLiteIntArray*)&g0::inputs2, nullptr, const_cast<void*>(static_cast<const void*>(&g0::opdata2)), nullptr, 0, },
{ (TfLiteIntArray*)&g0::inputs3, (TfLiteIntArray*)&g0::outputs3, (TfLiteIntArray*)&g0::inputs3, nullptr, const_cast<void*>(static_cast<const void*>(&g0::opdata3)), nullptr, 0, },
};
#endif

used_operators_e used_ops[] =
{OP_FULLY_CONNECTED, OP_FULLY_CONNECTED, OP_FULLY_CONNECTED, OP_SOFTMAX, };


// Indices into tflTensors and tflNodes for subgraphs
const size_t tflTensors_subgraph_index[] = {0, 11, };
const size_t tflNodes_subgraph_index[] = {0, 4, };

// Input/output tensors
static const int in_tensor_indices[] = {
  0, 
};

static const int out_tensor_indices[] = {
  10, 
};


size_t current_subgraph_index = 0;

static void init_tflite_tensor(size_t i, TfLiteTensor *tensor) {
  tensor->type = tensorData[i].type;
  tensor->is_variable = false;

#if defined(EI_CLASSIFIER_ALLOCATION_HEAP)
  tensor->allocation_type = tensorData[i].allocation_type;
#else
  tensor->allocation_type = (tensor_arena <= tensorData[i].data && tensorData[i].data < tensor_arena + kTensorArenaSize) ? kTfLiteArenaRw : kTfLiteMmapRo;
#endif
  tensor->bytes = tensorData[i].bytes;
  tensor->dims = tensorData[i].dims;

#if defined(EI_CLASSIFIER_ALLOCATION_HEAP)
  if(tensor->allocation_type == kTfLiteArenaRw){
    uint8_t* start = (uint8_t*) ((uintptr_t)tensorData[i].data + (uintptr_t) tensor_arena);

    tensor->data.data =  start;
  }
  else {
      tensor->data.data = tensorData[i].data;
  }
#else
  tensor->data.data = tensorData[i].data;
#endif // EI_CLASSIFIER_ALLOCATION_HEAP
  tensor->quantization = tensorData[i].quantization;
  if (tensor->quantization.type == kTfLiteAffineQuantization) {
    TfLiteAffineQuantization const* quant = ((TfLiteAffineQuantization const*)(tensorData[i].quantization.params));
    tensor->params.scale = quant->scale->data[0];
    tensor->params.zero_point = quant->zero_point->data[0];
  }

}

static void init_tflite_eval_tensor(int i, TfLiteEvalTensor *tensor) {

  tensor->type = tensorData[i].type;

  tensor->dims = tensorData[i].dims;

#if defined(EI_CLASSIFIER_ALLOCATION_HEAP)
  auto allocation_type = tensorData[i].allocation_type;
  if(allocation_type == kTfLiteArenaRw) {
    uint8_t* start = (uint8_t*) ((uintptr_t)tensorData[i].data + (uintptr_t) tensor_arena);

    tensor->data.data =  start;
  }
  else {
    tensor->data.data = tensorData[i].data;
  }
#else
  tensor->data.data = tensorData[i].data;
#endif // EI_CLASSIFIER_ALLOCATION_HEAP
}

static void* overflow_buffers[EI_MAX_OVERFLOW_BUFFER_COUNT];
static size_t overflow_buffers_ix = 0;
static void * AllocatePersistentBufferImpl(struct TfLiteContext* ctx,
                                       size_t bytes) {
  void *ptr;
  uint32_t align_bytes = (bytes % 16) ? 16 - (bytes % 16) : 0;

  if (current_location - (bytes + align_bytes) < tensor_boundary) {
    if (overflow_buffers_ix > EI_MAX_OVERFLOW_BUFFER_COUNT - 1) {
      ei_printf("ERR: Failed to allocate persistent buffer of size %d, does not fit in tensor arena and reached EI_MAX_OVERFLOW_BUFFER_COUNT\n",
        (int)bytes);
      return NULL;
    }

    // OK, this will look super weird, but.... we have CMSIS-NN buffers which
    // we cannot calculate beforehand easily.
    ptr = ei_calloc(bytes, 1);
    if (ptr == NULL) {
      ei_printf("ERR: Failed to allocate persistent buffer of size %d\n", (int)bytes);
      return NULL;
    }
    overflow_buffers[overflow_buffers_ix++] = ptr;
    return ptr;
  }

  current_location -= bytes;

  // align to the left aligned boundary of 16 bytes
  current_location -= 15; // for alignment
  current_location += 16 - ((uintptr_t)(current_location) & 15);

  ptr = current_location;
  memset(ptr, 0, bytes);

  return ptr;
}

typedef struct {
  size_t bytes;
  void *ptr;
} scratch_buffer_t;

static scratch_buffer_t scratch_buffers[EI_MAX_SCRATCH_BUFFER_COUNT];
static size_t scratch_buffers_ix = 0;

static TfLiteStatus RequestScratchBufferInArenaImpl(struct TfLiteContext* ctx, size_t bytes,
                                                int* buffer_idx) {
  if (scratch_buffers_ix > EI_MAX_SCRATCH_BUFFER_COUNT - 1) {
    ei_printf("ERR: Failed to allocate scratch buffer of size %d, reached EI_MAX_SCRATCH_BUFFER_COUNT\n",
      (int)bytes);
    return kTfLiteError;
  }

  scratch_buffer_t b;
  b.bytes = bytes;

  b.ptr = AllocatePersistentBufferImpl(ctx, b.bytes);
  if (!b.ptr) {
    ei_printf("ERR: Failed to allocate scratch buffer of size %d\n",
      (int)bytes);
    return kTfLiteError;
  }

  scratch_buffers[scratch_buffers_ix] = b;
  *buffer_idx = scratch_buffers_ix;

  scratch_buffers_ix++;

  return kTfLiteOk;
}

static void* GetScratchBufferImpl(struct TfLiteContext* ctx, int buffer_idx) {
  if (buffer_idx > (int)scratch_buffers_ix) {
    return NULL;
  }
  return scratch_buffers[buffer_idx].ptr;
}

static const uint16_t TENSOR_IX_UNUSED = 0x7FFF;

static void ResetTensors() {
  for (size_t ix = 0; ix < MAX_TFL_TENSOR_COUNT; ix++) {
    tflTensors[ix].index = TENSOR_IX_UNUSED;
  }
  for (size_t ix = 0; ix < MAX_TFL_EVAL_COUNT; ix++) {
    tflEvalTensors[ix].index = TENSOR_IX_UNUSED;
  }
}

static TfLiteTensor* GetTensorImpl(const struct TfLiteContext* context,
                               int tensor_idx) {

  tensor_idx = tflTensors_subgraph_index[current_subgraph_index] + tensor_idx;

  for (size_t ix = 0; ix < MAX_TFL_TENSOR_COUNT; ix++) {
    // already used? OK!
    if (tflTensors[ix].index == tensor_idx) {
      return &tflTensors[ix].tensor;
    }
    // passed all the ones we've used, so end of the list?
    if (tflTensors[ix].index == TENSOR_IX_UNUSED) {
      // init the tensor
      init_tflite_tensor(tensor_idx, &tflTensors[ix].tensor);
      tflTensors[ix].index = tensor_idx;
      return &tflTensors[ix].tensor;
    }
  }

  ei_printf("ERR: GetTensor called beyond MAX_TFL_TENSOR_COUNT (%d)\n", MAX_TFL_TENSOR_COUNT);
  return nullptr;
}

static TfLiteEvalTensor* GetEvalTensorImpl(const struct TfLiteContext* context,
                                       int tensor_idx) {

  tensor_idx = tflTensors_subgraph_index[current_subgraph_index] + tensor_idx;

  for (size_t ix = 0; ix < MAX_TFL_EVAL_COUNT; ix++) {
    // already used? OK!
    if (tflEvalTensors[ix].index == tensor_idx) {
      return &tflEvalTensors[ix].tensor;
    }
    // passed all the ones we've used, so end of the list?
    if (tflEvalTensors[ix].index == TENSOR_IX_UNUSED) {
      // init the tensor
      init_tflite_eval_tensor(tensor_idx, &tflEvalTensors[ix].tensor);
      tflEvalTensors[ix].index = tensor_idx;
      return &tflEvalTensors[ix].tensor;
    }
  }

  ei_printf("ERR: GetTensor called beyond MAX_TFL_EVAL_COUNT (%d)\n", (int)MAX_TFL_EVAL_COUNT);
  return nullptr;
}

class EonMicroContext : public MicroContext {
 public:
 
  EonMicroContext(): MicroContext(nullptr, nullptr, nullptr) { }

  void* AllocatePersistentBuffer(size_t bytes) {
    return AllocatePersistentBufferImpl(nullptr, bytes);
  }

  TfLiteStatus RequestScratchBufferInArena(size_t bytes,
                                           int* buffer_index) {
  return RequestScratchBufferInArenaImpl(nullptr, bytes, buffer_index);
  }

  void* GetScratchBuffer(int buffer_index) {
    return GetScratchBufferImpl(nullptr, buffer_index);
  }
 
  TfLiteTensor* AllocateTempTfLiteTensor(int tensor_index) {
    return GetTensorImpl(nullptr, tensor_index);
  }

  void DeallocateTempTfLiteTensor(TfLiteTensor* tensor) {
    return;
  }

  bool IsAllTempTfLiteTensorDeallocated() {
    return true;
  }

  TfLiteEvalTensor* GetEvalTensor(int tensor_index) {
    return GetEvalTensorImpl(nullptr, tensor_index);
  }

};


} // namespace

TfLiteStatus tflite_learn_961956_5_init( void*(*alloc_fnc)(size_t,size_t) ) {
#ifdef EI_CLASSIFIER_ALLOCATION_HEAP
  tensor_arena = (uint8_t*) alloc_fnc(16, kTensorArenaSize);
  if (!tensor_arena) {
    ei_printf("ERR: failed to allocate tensor arena\n");
    return kTfLiteError;
  }
#else
  memset(tensor_arena, 0, kTensorArenaSize);
#endif
  tensor_boundary = tensor_arena;
  current_location = tensor_arena + kTensorArenaSize;

  EonMicroContext micro_context_;
  
  // Set microcontext as the context ptr
  ctx.impl_ = static_cast<void*>(&micro_context_);
  // Setup tflitecontext functions
  ctx.AllocatePersistentBuffer = &AllocatePersistentBufferImpl;
  ctx.RequestScratchBufferInArena = &RequestScratchBufferInArenaImpl;
  ctx.GetScratchBuffer = &GetScratchBufferImpl;
  ctx.GetTensor = &GetTensorImpl;
  ctx.GetEvalTensor = &GetEvalTensorImpl;
  ctx.ReportError = &MicroContextReportOpError;

  ctx.tensors_size = 11;
  for (size_t i = 0; i < 11; ++i) {
    TfLiteTensor tensor;
    init_tflite_tensor(i, &tensor);
    if (tensor.allocation_type == kTfLiteArenaRw) {
      auto data_end_ptr = (uint8_t*)tensor.data.data + tensorData[i].bytes;
      if (data_end_ptr > tensor_boundary) {
        tensor_boundary = data_end_ptr;
      }
    }
  }

  if (tensor_boundary > current_location /* end of arena size */) {
    ei_printf("ERR: tensor arena is too small, does not fit model - even without scratch buffers\n");
    return kTfLiteError;
  }

  registrations[OP_FULLY_CONNECTED] = Register_FULLY_CONNECTED();
  registrations[OP_SOFTMAX] = Register_SOFTMAX();

  for (size_t g = 0; g < 1; ++g) {
    current_subgraph_index = g;
    for(size_t i = tflNodes_subgraph_index[g]; i < tflNodes_subgraph_index[g+1]; ++i) {
      if (registrations[used_ops[i]].init) {
        tflNodes[i].user_data = registrations[used_ops[i]].init(&ctx, (const char*)tflNodes[i].builtin_data, 0);
      }
    }
  }
  current_subgraph_index = 0;

  for(size_t g = 0; g < 1; ++g) {
    current_subgraph_index = g;
    for(size_t i = tflNodes_subgraph_index[g]; i < tflNodes_subgraph_index[g+1]; ++i) {
      if (registrations[used_ops[i]].prepare) {
        ResetTensors();
        TfLiteStatus status = registrations[used_ops[i]].prepare(&ctx, &tflNodes[i]);
        if (status != kTfLiteOk) {
          return status;
        }
      }
    }
  }
  current_subgraph_index = 0;

  return kTfLiteOk;
}

TfLiteStatus tflite_learn_961956_5_input(int index, TfLiteTensor *tensor) {
  init_tflite_tensor(in_tensor_indices[index], tensor);
  return kTfLiteOk;
}

TfLiteStatus tflite_learn_961956_5_output(int index, TfLiteTensor *tensor) {
  init_tflite_tensor(out_tensor_indices[index], tensor);
  return kTfLiteOk;
}

TfLiteStatus tflite_learn_961956_5_invoke() {
  for (size_t i = 0; i < 4; ++i) {
    ResetTensors();

    TfLiteStatus status = registrations[used_ops[i]].invoke(&ctx, &tflNodes[i]);

#if EI_CLASSIFIER_PRINT_STATE
    ei_printf("layer %lu\n", i);
    ei_printf("    inputs:\n");
    for (size_t ix = 0; ix < tflNodes[i].inputs->size; ix++) {
      auto d = tensorData[tflNodes[i].inputs->data[ix]];

      size_t data_ptr = (size_t)d.data;

      if (d.allocation_type == kTfLiteArenaRw) {
        data_ptr = (size_t)tensor_arena + data_ptr;
      }

      if (d.type == TfLiteType::kTfLiteInt8) {
        int8_t* data = (int8_t*)data_ptr;
        ei_printf("        %lu (%zu bytes, ptr=%p, alloc_type=%d, type=%d): ", ix, d.bytes, data, (int)d.allocation_type, (int)d.type);
        for (size_t jx = 0; jx < d.bytes; jx++) {
          ei_printf("%d ", data[jx]);
        }
      }
      else {
        float* data = (float*)data_ptr;
        ei_printf("        %lu (%zu bytes, ptr=%p, alloc_type=%d, type=%d): ", ix, d.bytes, data, (int)d.allocation_type, (int)d.type);
        for (size_t jx = 0; jx < d.bytes / 4; jx++) {
          ei_printf("%f ", data[jx]);
        }
      }
      ei_printf("\n");
    }
    ei_printf("\n");

    ei_printf("    outputs:\n");
    for (size_t ix = 0; ix < tflNodes[i].outputs->size; ix++) {
      auto d = tensorData[tflNodes[i].outputs->data[ix]];

      size_t data_ptr = (size_t)d.data;

      if (d.allocation_type == kTfLiteArenaRw) {
        data_ptr = (size_t)tensor_arena + data_ptr;
      }

      if (d.type == TfLiteType::kTfLiteInt8) {
        int8_t* data = (int8_t*)data_ptr;
        ei_printf("        %lu (%zu bytes, ptr=%p, alloc_type=%d, type=%d): ", ix, d.bytes, data, (int)d.allocation_type, (int)d.type);
        for (size_t jx = 0; jx < d.bytes; jx++) {
          ei_printf("%d ", data[jx]);
        }
      }
      else {
        float* data = (float*)data_ptr;
        ei_printf("        %lu (%zu bytes, ptr=%p, alloc_type=%d, type=%d): ", ix, d.bytes, data, (int)d.allocation_type, (int)d.type);
        for (size_t jx = 0; jx < d.bytes / 4; jx++) {
          ei_printf("%f ", data[jx]);
        }
      }
      ei_printf("\n");
    }
    ei_printf("\n");
#endif // EI_CLASSIFIER_PRINT_STATE

    if (status != kTfLiteOk) {
      return status;
    }
  }
  return kTfLiteOk;
}

TfLiteStatus tflite_learn_961956_5_reset( void (*free_fnc)(void* ptr) ) {
#ifdef EI_CLASSIFIER_ALLOCATION_HEAP
  free_fnc(tensor_arena);
#endif

  // scratch buffers are allocated within the arena, so just reset the counter so memory can be reused
  scratch_buffers_ix = 0;

  // overflow buffers are on the heap, so free them first
  for (size_t ix = 0; ix < overflow_buffers_ix; ix++) {
    ei_free(overflow_buffers[ix]);
  }
  overflow_buffers_ix = 0;
  return kTfLiteOk;
}
